digraph Tree {
node [shape=box, fontname="Sans-Serif"] ;
edge [fontname="Sans-Serif"] ;
0 [label="locality_type_urban <= 0.5\ngini = 0.44\nsamples = 2467\nvalue = [805, 1662]\nclass = 1"] ;
1 [label="has_internet <= 0.5\ngini = 0.054\nsamples = 798\nvalue = [776, 22]\nclass = 0"] ;
0 -> 1 [labeldistance=2.5, labelangle=45, headlabel="True"] ;
2 [label="gini = 0.0\nsamples = 698\nvalue = [698, 0]\nclass = 0"] ;
1 -> 2 ;
3 [label="exp_corn <= 0.017\ngini = 0.343\nsamples = 100\nvalue = [78, 22]\nclass = 0"] ;
1 -> 3 ;
4 [label="has_microwave <= 0.5\ngini = 0.245\nsamples = 7\nvalue = [1, 6]\nclass = 1"] ;
3 -> 4 ;
5 [label="(...)"] ;
4 -> 5 ;
6 [label="(...)"] ;
4 -> 6 ;
7 [label="BMI_random_adult <= 0.379\ngini = 0.285\nsamples = 93\nvalue = [77, 16]\nclass = 0"] ;
3 -> 7 ;
8 [label="(...)"] ;
7 -> 8 ;
29 [label="(...)"] ;
7 -> 29 ;
32 [label="strata_1st_strata <= 0.5\ngini = 0.034\nsamples = 1669\nvalue = [29, 1640]\nclass = 1"] ;
0 -> 32 [labeldistance=2.5, labelangle=-45, headlabel="False"] ;
33 [label="exp_dairy <= 0.359\ngini = 0.001\nsamples = 1540\nvalue = [1, 1539]\nclass = 1"] ;
32 -> 33 ;
34 [label="gini = 0.0\nsamples = 1521\nvalue = [0, 1521]\nclass = 1"] ;
33 -> 34 ;
35 [label="exp_dairy <= 0.362\ngini = 0.1\nsamples = 19\nvalue = [1, 18]\nclass = 1"] ;
33 -> 35 ;
36 [label="(...)"] ;
35 -> 36 ;
37 [label="(...)"] ;
35 -> 37 ;
38 [label="use_none <= 0.5\ngini = 0.34\nsamples = 129\nvalue = [28, 101]\nclass = 1"] ;
32 -> 38 ;
39 [label="has_blender <= 0.5\ngini = 0.187\nsamples = 86\nvalue = [9, 77]\nclass = 1"] ;
38 -> 39 ;
40 [label="(...)"] ;
39 -> 40 ;
41 [label="(...)"] ;
39 -> 41 ;
52 [label="region_Centre <= 0.5\ngini = 0.493\nsamples = 43\nvalue = [19, 24]\nclass = 1"] ;
38 -> 52 ;
53 [label="(...)"] ;
52 -> 53 ;
62 [label="(...)"] ;
52 -> 62 ;
}